-2.391642904196699670e-01 3.228562095966753809e-01 4.944955881625370808e-01
-1.650077433529602455e+00 3.328735311275637376e-01 2.988929458326249344e-01
-2.140125196149678999e+00 7.676725246134895597e-01 2.501099697542123138e-03
3.667504702450653797e-02 2.351893379446255705e-02 -1.836178679052496987e-01
8.821912927312168529e-02 -1.709136584732771080e+00 -7.192581786817531242e-01
-4.254817899976233164e-01 -1.268058191347437802e+00 9.526863400984260377e-02
6.552046074499252859e-02 -5.348343508504373872e-02 -2.041428327473033821e-01
-3.707773172904287318e-01 -5.263098341839967942e-01 1.973356260872573820e-01
-1.444978439849718688e-01 5.261927894153638485e-01 1.656252486558004999e-01
-5.188452433076612413e-01 -8.038635056706175952e-01 2.662778242913440785e+00
-3.758011147339477276e-01 -2.510405050105274927e-01 2.064257348957031279e+00
7.645669124136090788e-01 2.333736145789447325e-01 -6.082675917708683933e-02
-2.279066258359982722e-01 1.004609468740845113e+00 9.226715399057183742e-01
-9.028088488967117575e-01 1.160084457039258554e+00 1.878347585745787418e+00
1.378255985566477992e+00 -1.252118080563370039e+00 1.409527930587419542e+00
2.334645860452366328e+00 7.960716418573198228e-01 1.939838765191236325e+00
-7.530174387975578920e-01 -1.522849809481293393e-01 -3.524715359880955384e-02
-1.125037811420414258e+00 4.860272835603148822e-01 -1.411994945668212653e-01
-1.476267907165336624e+00 6.846136490429680088e-02 -5.035000433776534168e-01
3.461378504194470573e-01 9.952796832275063732e-01 -3.964385251870420346e-01
1.620499700536991994e-01 -1.526371493984755912e+00 -6.774314291669679688e-01
9.473024607739176650e-01 8.315386561611919358e-01 2.322572501196049142e-04
3.513790771147122238e-01 -4.245591821830486667e-01 -8.894758672876419414e-01
-8.527710404275354872e-01 1.127126850065758301e+00 -1.030146972480799894e+00
1.123961140478692666e+00 -1.289401068284682095e-01 2.724251968020053205e+00
1.056244450215476638e+00 3.448044958985517494e-02 1.223223608888562852e+00
-5.534120777782746137e-01 -8.195041849894364461e-01 6.695668285722723434e-01
1.990488405096495050e+00 4.525193186271381229e-01 9.033299111015438143e-01
-2.836793881935956163e-01 -2.542457837911661356e-01 -8.550219865810957387e-01
1.829280491462712321e+00 -6.109662024065359853e-01 3.978683574969684722e-01
1.346584970187141572e-01 -1.680268867921500320e+00 -8.068863586681441769e-01
-1.329030007821927262e+00 -7.238771474930905114e-01 -1.038517834948408991e+00
1.579295932566044669e-01 5.249504203247948864e-01 3.838844519912466002e-01
-2.729839351978584627e-01 1.966417928505317603e+00 9.151648211195003713e-01
6.321246071320679727e-01 -1.462451991825675979e+00 -2.406552548440014649e-01
-1.171765789254290535e+00 -5.774183000372338226e-01 -1.906476048772067333e+00
-8.924639258033923994e-01 2.128047764759104510e-01 5.931890485894451004e-01
1.536337098801795031e+00 8.388921425853934632e-01 8.235703247293763019e-01
-1.266932106636841748e+00 5.059065862505911504e-01 -1.819440844908287946e+00
-1.743120577354876632e-01 -4.854116870340847711e-01 5.260449112617954226e-01
-8.083100161187024846e-02 -9.358115754167745104e-02 2.653402787334786073e+00
1.817922061161838521e-01 -1.699890977206214293e+00 7.690512314817335437e-02
2.455969744988800940e+00 9.778826929189472772e-02 -2.282755126426969206e+00
1.214446637160963710e-01 1.618397635582031202e-01 -2.379415863787600394e+00
-1.047253861741324954e+00 1.081923776472078602e+00 1.530808128226298859e+00
-2.302606998977610453e-01 1.339337637352740473e-01 1.819221156556899976e-01
2.482097017775859171e-01 -5.215980289731594333e-01 1.360555001961762100e-01
-6.501715579619368190e-01 1.809436787802737978e+00 4.823224661881465591e-01
-5.460376316304978994e-01 -1.609343501591741887e+00 9.642801127719349275e-01
7.094650983149536350e-01 6.708567447855202648e-01 -1.462244398567528636e+00
2.430164929543581764e-01 1.494122748556901692e-01 -1.826345713453774999e-01
1.027418856140347413e-02 -1.011840594913961944e+00 1.253521474109220712e-01
1.359241761168579643e+00 1.580480374288557588e+00 1.949660536317925130e+00
-1.333560861611002846e-01 4.454422902252096472e-01 5.928447580979190334e-01
-4.035604435734666540e-01 1.767971795660775725e-01 7.711933436519401441e-01
-1.383720847626422890e+00 -4.946889016028770958e-01 -3.959296120864307378e-01
-8.227272289823159834e-01 -2.709371928413124020e-01 1.061719817099153973e+00
7.129382983608257840e-01 1.394002360560476328e+00 1.050972753438743412e+00
-2.322367752392135998e+00 -1.952377043490760578e+00 -1.970957778710007657e+00
-2.368308959168102579e+00 -6.035479089766320193e-01 -7.668898843757632200e-01
-1.048379697773058616e+00 5.865105498564607833e-01 1.613401915740583448e+00
-5.596107181179645895e-01 1.288302620728189130e+00 -8.233519345752136065e-01
-7.570521308446256370e-01 1.409788782389367057e-01 -5.835800260234218495e-01
5.056339698296712371e-01 -1.165770506914785676e+00 -2.247568064168339319e+00
1.870259586883410430e+00 -8.510223419465313965e-02 -1.315682169937763879e+00
-1.125819266444951228e-01 1.295872947011240228e+00 5.971203603696854101e-01
1.140322224917460270e+00 7.811704904239288316e-01 -1.382032506836528229e+00
-1.398569073569617127e-01 -6.886519617834009344e-01 -6.370463496452504204e-01
1.337917231433777276e+00 -4.962352399456170793e-01 -7.367941069705008506e-01
-1.327177541056243415e+00 3.468478060836066024e-01 -5.740966448652263382e-02
1.964307700717088156e+00 3.578229790718907011e-01 2.554937190109751732e-02
-9.042053302029762207e-01 3.618728186547320202e+00 6.004008511755677402e-01
-7.355713559088593589e-01 2.646336703568044957e+00 5.753374106688277090e-01
-6.359124577950622248e-01 -1.350321632374789305e+00 -1.003463437497372990e+00
1.090198276154541235e+00 -1.426752799280857298e+00 1.928739889505343807e+00
6.295435805596880652e-01 3.081545095049459393e-01 -3.216421645808996699e-01
2.601182786405950575e-01 -1.244488196696704740e+00 9.140036332629514204e-01
-5.935875687039269266e-01 -8.503082549563132364e-01 -1.243960558073862854e+00
-7.481417817344826471e-01 7.449132091731957006e-01 7.438720985965162624e-01
8.008620139774105251e-01 -2.913943421665505795e+00 -1.894126465625280531e+00
-1.229982133203171513e+00 1.138432654282865775e+00 -1.819169519515496936e-01
9.906489840812705561e-01 -1.135203987638674361e+00 2.831367390043199039e-01
-6.304993765625467317e-01 2.004017197268122552e-01 -7.558037187154271752e-01
4.336707923647211693e-01 -2.631502027231942820e-01 -1.305659453599935238e-01
6.541827046946840918e-01 2.082704752161368855e+00 -1.056434610391055573e+00
1.413552255892462917e+00 1.668679714302416572e+00 -8.303882173211025730e-01
-1.042643740090194893e+00 1.387604838907611875e-02 -1.249942026117667471e+00
-8.540815261705166916e-01 1.988351769046922346e+00 -2.717904647126051509e-01
-1.494408980229872397e-01 4.893980402951502717e-01 -1.664055991031608839e+00
6.042939761328957049e-01 7.744202546607202864e-01 -2.104896892586078483e+00
8.715771921543093992e-01 1.611472107212525540e+00 4.962098663189318803e-01
1.725444966549689374e+00 -1.018989638714668244e-01 1.080304077584683498e+00
-1.504625671309786084e+00 -8.251905587764359895e-01 -8.521093969186770423e-01
1.506372198224653847e+00 -8.522423965973640048e-01 -2.363640389812825260e-01
5.517669273029386368e-01 9.874428018055252387e-01 -3.883810910231555447e-01
1.555125604015952512e-01 -8.386311730763179595e-01 -7.446139444004610253e-01
2.235544972111986883e+00 1.092942784977645604e-01 5.397147641426747189e-02
7.764810547558788079e-01 7.793289391917715414e-02 -1.550292852909883057e-01
-2.978269745155531223e-01 -6.295176685439678455e-01 1.513702460364905744e-01
-1.362674857888132474e+00 -7.785869470798438829e-01 -2.437471653627879764e+00
-1.598519858230065482e+00 -1.444760328247899628e-01 1.147288130240396331e+00
3.150307701603948241e-01 -6.339215323625076171e-02 -4.681781289973405147e-01
1.766578619226867042e-01 1.335371408362710621e+00 7.839932086007078693e-01
1.390974529274374039e+00 -9.914657252211580563e-01 -7.944815670485499970e-01
-2.311291817573083718e-01 3.630186158568962096e-01 7.945267863024844113e-01
-8.418502840577435364e-01 -1.020101537851075379e+00 1.305275859009743078e+00
1.698675276698294434e+00 -9.155820009418296213e-01 -1.342890575018720611e-01
-2.543080170183516842e+00 -3.430806224203310495e-01 -1.883950158854576576e-02
1.207403623576641216e+00 1.189563704673037625e+00 3.297100936051579334e-02
3.007304126655068743e-01 6.157301548321028051e-01 6.547520450930239821e-01
-4.942765245480016389e-01 -5.732089239568789463e-01 -1.074162521654899116e+00
-1.055290561885803058e+00 -1.393068729964122010e+00 -2.012970079211714169e-01
1.392984139292527956e+00 1.108923835738320429e+00 9.220446392251098466e-02
1.514460784383988123e+00 3.899473773124036979e-01 -6.520375684523016524e-01
6.081184753737998161e-01 3.853219496633940033e-01 -8.703986282124692719e-01
4.950613291905711644e-01 -1.900332931152522331e+00 8.935441471368287258e-01
1.292511698550912413e+00 2.690116895405779696e-01 5.405184744886201154e-01
-1.349454705234609975e+00 7.494227141024955019e-01 -1.958185454032370654e+00
1.391014302870723085e-01 4.845113014430219578e-01 -6.584751829713804405e-02
-2.078931586033222700e+00 5.705984834572762621e-01 4.810997748677819930e-01
7.447856597546635982e-01 -3.399713607533897952e-01 1.074283051732245475e+00
-3.751659066809106546e-01 1.086220186536176247e+00 -1.478345151366290411e+00
-4.867901686578849363e-01 6.140828807883572660e-01 2.383780742784991635e-01
3.271694269408811362e-01 3.543955455589886117e-01 -5.631833933673987547e-01
1.880241538164955095e+00 -3.138990228823436812e+00 5.646348102257963131e-01
3.881811025905608781e-01 1.077767761304516014e+00 2.211264952186627664e+00
3.129208803461613203e-02 -5.491282436449369808e-02 -8.374761875917365872e-01
1.931387193680884629e+00 -6.951352281545407630e-01 -1.159192902094726474e+00
-5.131813633665217589e-01 -1.044860120296509098e+00 1.229579164474898345e+00
-6.216294208604437044e-01 1.145995858971445180e+00 -9.863349982845300845e-01
-1.000679475803871732e-01 -5.686544837764060389e-01 -1.360413364254006163e+00
-2.498384625857199004e-01 1.022300548319979407e+00 7.298169481552939653e-01
-8.559389967834762913e-01 -6.056602615140992130e-02 -1.059419494665110983e+00
-5.339748004351331234e-01 -5.199409588108332425e-01 -6.516359096922756944e-01
-9.652347840670775225e-01 5.501565113236686067e-01 -1.287876135596156324e+00
-6.970008269729928152e-01 6.574233124047422772e-01 -7.675585349911174804e-01
-1.140219859333945429e+00 2.930265236057797984e-01 -2.381270176801760508e-01
-2.226310964258879643e-01 1.103677349519724293e+00 7.874420817786691174e-02
-1.251009879969581684e+00 -1.926227434450869858e+00 2.699232744066316081e-01
5.064822809253007874e-01 -2.088652219132230148e-01 1.463041315474116200e+00
-1.176365910760747369e+00 -7.515212963141543190e-01 -2.519073021431241788e-01
2.030885284159573145e-01 -1.397360222129495066e-01 -7.107893507215422291e-02
7.205852898059450506e-02 -6.565016848009310735e-01 4.923538151984536704e-01
-7.425559602379214752e-01 -2.423925497244688310e-01 -3.897766918980264395e-01
7.607408504701449470e-01 -8.283691101686730951e-01 1.343955003882565169e+00
-1.679794952946455977e+00 1.424224577265505998e+00 -1.300018633020939562e+00
-6.025702453917537449e-01 9.733818763163722965e-01 -1.703668528459772347e+00
-8.797656111995733053e-01 1.449650861554296344e-01 1.933956411557711252e-01
2.443167674333916184e-01 2.240831372186457671e+00 -6.701395614185958749e-01
3.491422556818862127e-02 -2.190591590802962951e+00 9.722418275330901860e-01
-2.761217445907779844e-01 -6.586003754502294250e-01 -2.223641023114053095e+00
3.724903322889193125e-01 3.177490188214425748e-01 -4.992967229369477677e-01
9.846790060425751889e-01 1.376051628728670595e+00 -6.817837359479623771e-01
3.749889692975643674e-01 1.490901214296746491e-01 6.964690019630882800e-02
4.824638370862725512e-01 7.455139141186649665e-01 9.001216011777991577e-01
-6.572418655795486675e-01 -5.010719573514407221e-01 -2.993295155808308738e-01
-2.284980662726929790e+00 3.446645816228507408e-01 -5.186159842421780297e-01
3.589264056297215566e-01 -7.110808886249407879e-01 -2.076913392284466808e-01
-3.021837801911322896e-01 -2.889211091730967129e-01 -1.133902071331205352e+00
-1.129779004948073373e+00 -3.859527524977900970e-01 4.781919412108304734e-01
-1.135404434874504487e+00 1.019791304120087005e+00 4.250181930103943961e-01
5.616775462216396786e-01 1.188670241824843821e+00 1.424508358572469380e+00
-4.731908232126915692e-01 -1.190460975674359156e+00 -1.284158607843984612e+00
-1.060769646133499888e+00 5.110118473744654777e-01 -2.240517192336433538e+00
-2.559356266213870690e+00 -7.975445958885263309e-01 -1.431103222656177287e+00
-1.039090616702203596e+00 -2.036566378544407030e+00 8.036303599049569035e-01
-1.940903016388239033e-01 -4.295948516522343774e-02 -7.775081801561096739e-01
6.704352179537872436e-01 5.713391811948898003e-01 1.073319900106138869e+00
4.548189501008206848e-01 1.039229461648407238e+00 3.411376629443397812e-01
2.546322145746034438e-01 2.005615109418244391e+00 -1.281560888567692791e+00
8.234726508417454793e-01 1.956703873558937601e-01 1.479518313538878971e+00
-1.622873210151803414e-01 -4.374703238630270330e-01 -1.855553566260324638e+00
-1.149451537391946276e+00 -1.151113066399576335e+00 1.056328282794354090e+00
8.057505067296338863e-01 2.331006961848276771e-01 2.085452564544407195e-01
1.245781172879001142e+00 -1.230679341726241605e+00 1.960917723038581584e-01
1.102000689607687045e+00 1.518974085772829830e-01 -1.259820092132145353e-01
-1.010034548684578759e+00 -9.141044207445332415e-01 1.395574510815653202e+00
-1.264201912524712146e+00 -1.106241178717731533e+00 -6.671406935168812113e-01
-1.288643593199529036e+00 -1.172907651476720492e+00 1.071591901205552810e+00
-1.316192033250088045e+00 -3.138755195805051357e-01 7.286062526984068421e-01
8.260042693183360374e-01 -1.354847663220317910e+00 -5.423260139889103382e-01
5.623597260767487782e-01 2.510594315371516005e-01 1.624116726220168117e+00
4.909024449881561059e-01 -3.569417468289267092e-01 1.328761282942598543e+00
-1.128947622876549151e+00 4.884798580470446905e-01 1.389893426256295361e-01
1.358720642727334171e+00 1.268862970198071649e-01 -7.512198729692719512e-01
1.119155295229219860e+00 3.990283977214876820e-01 -1.052194432172638416e+00
5.860762374658868845e-01 -1.328914302300953310e+00 -4.452404168243283000e-01
-2.942294780762181317e-01 -1.037862192173728548e+00 -2.876522128997057171e-01
-1.979298691528235954e-01 8.207944300824469019e-01 1.275835054668662316e+00
-1.613124036572992415e+00 -1.046790869603673624e+00 1.487912255760011737e+00
7.262297175411384087e-01 -9.912553495140231652e-01 1.987593096620749455e-01
2.944889574291629786e-01 1.884281105658856426e+00 5.138541483155184553e-01
1.574000235107184009e+00 -1.961367725772121817e+00 5.883680516397400417e-01
-3.234475223756567153e-01 -3.436903823203910635e-01 -2.294793183171481635e-02
1.262601444037103338e-01 2.590653318029934593e-01 1.603752892461954183e+00
7.894449756130351714e-01 -1.286888327193807191e+00 3.219606183802554700e-01
-9.906833075651243492e-01 -4.451678630196392872e-01 2.396073821997274089e-01
-1.120919118115168756e+00 -9.751378261965324423e-01 5.014651724110146674e-02
8.993043731090377690e-01 1.874704621428715523e+00 -3.966602621235628678e-01
-4.053347206050584850e-01 3.234951399207228184e-01 7.542822917102511016e-02
8.931876998362853204e-02 -1.764947237937338764e+00 -1.005800622582711412e+00
8.563676870380243500e-01 -1.158360796984102992e+00 5.572648637897075208e-01
-2.130468081686189841e-01 7.289190719030338439e-01 7.198553718968647708e-01
1.000304066841435802e+00 1.130380664166730664e+00 -6.316957932605453407e-02
8.306862560392127559e-01 4.542583186279853247e-01 5.629775923612341249e-01
-1.384819247569203937e-01 1.744324700262184447e+00 -1.502981372644469849e+00
-2.705438231307535912e-02 -1.400708335460891574e+00 5.231840988441733842e-01
-8.013648641603913214e-01 -6.844704564912538203e-01 -2.135642825896448382e+00
9.187621841085218399e-01 -2.721319606511678479e-01 1.567392048097358659e+00
7.819756413849799914e-01 -1.286839398422797043e+00 3.113106710678885114e-01
2.160556535997064931e-01 -4.049624298078685625e-01 1.811124545120567753e+00
1.632296523298195634e+00 -3.092460873592292603e-01 -6.517621724589345300e-01
-9.767838743217704955e-01 5.698787441328717618e-01 -3.393878397320093110e-01
-1.054650253215867250e+00 1.897477264619509274e+00 -1.632504198121943917e+00
5.490268923837912651e-02 -2.581109549665262293e+00 -5.325009184235601767e-01
-1.039293212966366342e+00 1.549885082196035491e+00 -1.969293358286684281e+00
-5.440306356361430673e-01 1.451058302603192018e+00 3.970289000620774722e-01
-2.120883578542972492e-01 -7.963635634470247471e-01 1.146863131076230724e+00
-7.591555677135896074e-01 -1.517786821799859132e+00 4.880416535700132785e-01
1.238019723010064466e+00 7.405621997852052107e-01 9.756388666355041428e-01
1.249703793550009268e+00 -6.362857013630183189e-01 -5.035641030218012126e-01
1.767363379583670069e+00 -8.623434075590340475e-01 -2.284166050016036564e+00
-4.747950424415146586e-01 -1.067533017297997322e+00 -1.050255509168578349e+00
-4.034597947697330933e-01 -1.943048377467124839e-04 1.841809696627456916e-02
5.048209983429738923e-01 -1.604264389140065694e-01 -1.539469446747711856e-01
-4.645070780919614561e-01 2.630149610895532453e-01 7.501521776302791933e-01
-9.310378012489997079e-01 -1.331047514937328868e+00 -1.710874199557291808e+00
-1.597219535398586965e+00 1.204861191050585312e+00 4.099759723669317846e-01
-1.122121759766434163e-01 -6.986370113689954753e-01 -7.472369242014231805e-01
-1.711903540055227824e+00 -7.367523148100854624e-02 -1.052620307515433229e+00
-1.168948601166867718e+00 1.597772452070096438e+00 6.845517307763352433e-01
1.168275529078598218e+00 -3.278902361676512833e-01 3.119244974689794891e-01
6.828587576651820035e-01 -1.394745342097634400e-01 -1.081040393533919119e-01
-1.736253203030033720e-01 -1.344983848847973285e+00 3.996962687663561109e-01
2.151768731263538625e-01 6.299380336716400297e-01 8.802654494778496819e-01
6.999504085665753106e-01 -1.829588051514916269e-01 -2.232325534738246020e+00
2.264204213741825844e-01 9.181134025869237547e-01 8.716386781727006872e-01
2.702493275153161179e+00 -9.864952087212672804e-01 -1.008274618484300000e-01
1.717136504304125566e+00 -5.775922307637803010e-01 1.111751655615251355e+00
-4.072661293726212994e-01 3.201969276658874208e-01 -2.129973737014180024e+00
-8.242925621471701436e-02 -1.251129144395780601e+00 3.114702782893710720e-01
1.154804042482734827e+00 2.774246801413764452e+00 -1.751513659796933631e+00
-7.161924583412089262e-01 -4.008432267983756403e-01 1.548914913967046392e+00
-5.905680814630879377e-02 1.133178265879147384e+00 -1.705064786590234638e+00
-8.225465607832168624e-01 1.402611165873544286e+00 1.712288514791020289e+00
-1.195721964245892943e+00 -8.315943335938399406e-01 1.436870591422455823e-01
9.174561171478967658e-01 -4.548219081857561297e-01 -8.717624843025741921e-01
1.305318416195926645e-01 1.685072006684590562e+00 -8.610429544596892582e-01
-6.692779914127180430e-01 4.098502435708611391e-01 -1.501235283847897506e+00
5.379782160273233194e-01 1.113889436232516461e+00 -5.299193200404290760e-01
-4.203206137188940650e-01 -1.296616719984094557e+00 -7.258091295160923329e-01
1.086726448669918105e-01 -1.472956688323517671e+00 3.347317962487414977e-01
1.660171023579630756e+00 -7.832710039365708976e-01 -1.209547126498086600e+00
1.199327660376102722e+00 6.045994288396162597e-01 -1.707818966646689862e+00
4.606341934640730829e-01 4.168697494367316625e-01 3.203238946349745153e-01
-7.057735858669978990e-01 -1.562508089834110825e+00 6.559602196566119980e-01
-7.491179539725556502e-02 -1.814142475925381859e-01 -5.177907548947162653e-01
-3.230830571049656541e-01 1.552697306228342233e+00 -4.968831480438879455e-01
1.365501529874070030e+00 -4.659425328739451033e-01 1.153071407631838463e+00
-1.001765468094190759e+00 9.684165692894811106e-02 6.988865596649308509e-01
-1.693649683899572100e-01 1.985616374808080398e+00 1.149625481135459593e+00
-2.675452296211273673e-01 -1.156120017245473530e+00 6.250273524118826751e-01
-2.285254793715486565e-01 -1.078789259138062562e+00 -4.333471552427657358e-01
1.740962363396942436e+00 4.383320926071292423e-01 1.437406875749362989e-01
6.495731059180424039e-01 -3.022443083328147373e-01 -1.309086611480557494e+00
-2.457943910659201592e+00 4.701565942375330320e-01 3.388197390033743650e-01
-6.351057426592302546e-01 1.548662068858958518e+00 -8.498961143821589515e-01
-1.770551223910096006e+00 -7.303116948831942512e-01 4.146769542362948036e-01
-2.408235699719335210e-01 -1.623486073409698527e+00 9.624949183623977556e-01
-3.081321281594316952e-01 -1.995102367025093582e+00 1.265719018436296750e+00
-3.976699753621869976e-02 8.599181715060278952e-01 -6.971121124759669385e-01
6.332335864885263454e-02 1.840943430126344149e-01 -5.964199630276519892e-01
7.069591295590062219e-02 7.179652316868699868e-01 6.908647098487187277e-01
5.671791021004319866e-01 -1.440057150292979760e+00 6.412027314882026152e-01
-2.473860981234280443e-01 8.443845374569075579e-01 -5.897020664238806775e-01
8.080978867082430628e-02 -6.927318167533255133e-01 1.238736929859292957e+00
3.839422845857439620e-02 -9.041625756990211427e-01 -1.086642639986075576e+00
-5.666019780127763417e-01 8.877460929483393937e-01 -1.363897444918134250e+00
-1.682094541241433205e+00 -1.188273598946038428e-01 -1.018127385368783999e+00
-8.968438000986067582e-01 -6.668104600724256148e-01 -7.132917308561749214e-01
-3.246167156814329102e-01 8.181148144599704741e-01 2.353953218535242087e+00
-1.432622197390511998e+00 1.991279403411183868e-01 -1.746395323438028724e+00
-8.480684489435410534e-01 1.436889084747100309e+00 -2.788767694240311457e+00
-3.674553205608017126e-01 5.528722522955910046e-01 -7.700771800360221020e-01
-1.592722920276016474e+00 -1.731742161269613639e-02 -9.341887495223746840e-02
-2.097984958151409174e+00 -3.968036221730383839e-01 -1.146498717991328631e+00
1.823010009799610476e-01 5.769386218459604532e-01 -1.065525560456459297e+00
-1.367640044135079336e+00 -8.002067890739487099e-01 1.334767096493554961e+00
-1.226786433768856988e+00 -1.243044585584178741e+00 -1.511811664226100138e+00
-2.402395943775292031e-01 -8.539682439403566416e-01 7.688225454186408125e-01
1.010865442594248709e+00 -5.151010307865467874e-01 -4.384169355079280961e-01
1.578811720585825640e+00 2.519470510235685135e-01 -1.488437646213909837e-01
9.648031144366274736e-01 -1.387688845479184696e-01 7.413601526983195633e-01
-6.603705818024234731e-01 7.212549900813485237e-01 -3.671408192981059360e-01
9.764033547503542243e-02 4.836811981518634451e-01 -2.189874995086472098e-01
1.713499150956357076e+00 -1.487556992417639057e+00 -1.067061911450542869e-03
3.085769244745595885e-01 7.489644242126068940e-01 1.133863941917005347e+00
-1.508120665195842758e+00 -1.069243516862260907e-01 8.095499309934194310e-01
1.218427012803017462e+00 3.844516042383069876e-01 8.351893542121465730e-01
-7.747547395452422103e-01 9.345550807114669789e-01 2.498674552044001018e+00
-1.656260291691807884e+00 1.149221853448354924e+00 -2.476370150599831524e-02
1.812649637724859097e-01 4.569558150783396555e-01 -6.822222321011736090e-01
2.457925411152760489e-02 3.007588593153601719e-01 2.802879503675027584e-01
-1.922623073822891993e+00 -2.429719328158493619e-01 1.582578745602693848e+00
-2.312410031651495159e-04 -6.161675153917479664e-01 -2.232098711174462513e-01
4.758857713005585355e-01 3.695874474221514383e-01 7.447265405402588023e-02
-4.070128632527644230e-01 2.848496847072811700e-01 5.726937407893136767e-01
-5.114720386177532552e-01 -6.042514688554830871e-01 1.052489347068619185e+00
6.848368556360903137e-01 -3.006276150579314521e-01 -8.984971089939015887e-02
1.429704571693320769e+00 2.913944398560552318e-01 -5.737887818895717196e-01
1.651490184189405852e+00 -8.153873806905287402e-02 1.813407266754372693e-01
-3.157409781921324821e-01 7.117123776987615003e-01 1.350861279924040925e+00
1.436121367502202206e+00 4.851536587364396191e-01 1.238610627042161516e+00
-9.827112570232041655e-01 1.222814489224456208e-01 6.198409842864700536e-01
1.267547141733983862e+00 4.846734669815826457e-01 5.230567788084576897e-01
7.889339850015537892e-02 7.548977620223985552e-01 -5.600551813769413245e-01
-8.917997353856867981e-01 3.610900844187263092e-01 -4.162318019309304007e-01
1.660219776230296151e+00 -7.298609291654462039e-01 1.097770991405129015e+00
-2.928022223441116179e+00 3.639972377465966469e-01 -7.046802615175812301e-01
-2.721299782581490523e-01 -1.981118809679916382e+00 -1.396930670828908871e+00
1.579714582101882758e+00 8.870643813957812540e-01 5.959559868146292461e-01
-2.827847380621862916e-01 9.183450549952790753e-01 4.224073469027060379e-01
-1.442330956528175667e+00 -1.090311756597872467e-01 -4.383226473553974434e-01
3.762617692514761553e-02 -8.629032860240200276e-02 -8.115025234806100274e-01
4.455172343276530555e-01 -7.864701167132259751e-01 -5.107316419497069937e-01
-4.035290763253066015e-01 -6.162192693450764258e-01 -7.914990315618978256e-01
-1.855289481977623334e+00 -9.753109678469370492e-01 6.513024664767619321e-01
8.757569375841497417e-01 4.278800239257096183e-01 3.796378859649371940e-01
2.810664792269777501e-01 1.232716467588213183e+00 7.270677492313264434e-01
3.846035305742946386e-01 -2.934058964105289991e-01 1.392760571320098562e+00
2.302822627451035220e-01 1.234676564123749598e+00 1.378670762544982054e-01
-6.492542398622613842e-01 5.152511730123002787e-01 -3.749179918246070553e-01
-1.169987490484301063e+00 2.608691215015161435e-01 -1.225974777083760348e+00
1.083110357924075950e+00 5.374137584673986945e-01 6.170968774809466595e-01
1.150407736306942041e+00 -8.729782925283100514e-01 -2.141428982551444982e+00
-1.664543289681454444e-02 -5.125632057726424717e-01 6.248569765668040565e-01
-1.185776137416392650e+00 -4.970759937739094303e-01 -2.667569402365509212e+00
1.307046463910444656e+00 -3.065145261506321828e-01 7.537217532985767132e-01
4.575326565407663582e-01 1.838051015957055667e-01 5.258010141777919033e-01
-6.512736619848040476e-02 -3.178911280855922228e-01 -1.906459907528215592e+00
-5.186269344443648899e-02 -2.213869419616711909e-01 -2.397541255098269708e-01
-1.788714014013752795e-01 5.189453751302507412e-01 -1.152296252947142330e+00
9.551132574239092898e-01 1.142538962905974786e+00 9.102872053000660157e-01
-6.745314365205444807e-01 4.449445611169056680e-01 -3.203701101670269336e-01
7.303571813451512629e-01 -1.262879366278840898e+00 1.148090912919779299e-01
-7.757027967684179126e-01 -2.395167533174813457e+00 1.230584133257461188e+00
-6.965730660772526672e-01 1.357735243968438921e+00 1.521761307185953704e+00
1.420456110600851529e+00 1.601570197596966283e+00 5.774872418017152481e-02
-1.247490850703873555e+00 -6.450378864304953108e-01 -8.520508421006085520e-01
3.792169024370984909e-01 3.440470609985202266e-01 1.478398837999195525e-01
3.688676573366058142e-01 -1.373392866789788558e+00 -1.404490668528499464e+00
2.938316159849104214e-01 9.164492372942167897e-01 8.903766679278183327e-01
-4.210978796951911907e-01 2.276470592424509665e+00 -5.304494524395952926e-01
2.015342575429135419e+00 -2.300557904517385177e-01 -5.200184599431868504e-01
9.342525254355401598e-01 -8.100939179337810492e-01 1.114251181507542654e+00
-3.966647721429356066e-02 -8.590415855570350534e-02 -1.086570120241970860e+00
1.712198566256596666e-02 1.203980504559324816e+00 -1.727796631205733707e-02
1.005125738006982239e+00 -2.402326589148669200e-02 2.015736936893041953e-01
-1.047900813060384850e+00 -7.019515958267243949e-01 1.533585967882592938e+00
-1.924708015544559281e+00 4.429070557386525775e-01 -2.686017408898119241e-01
1.980097382019445074e-01 1.206649418105531391e+00 6.481473371788825100e-01
1.363275181133032143e+00 8.005353852603025455e-02 -9.341442583868300731e-02
-1.106075637332496253e+00 6.932491943004923662e-01 -1.453479389405774314e-01
-2.253630646157538664e-01 8.633437175215481485e-01 -1.252735094590926357e+00
7.030185022224515468e-01 2.873931872330760529e-01 -2.376032824933936194e+00
-3.814000602835659337e-01 9.183819848508867345e-01 2.464924020163087037e-01
3.227755495338304748e-01 -3.819046125632925004e-01 -3.648551229754591896e-01
-7.438516397839356475e-01 1.501322883451459811e+00 -8.555930726606809644e-01
4.855682305620251382e-01 -9.835145929950610266e-02 3.196023957689565487e-01
-1.325665129327450176e+00 -4.551294419454024465e-01 4.635913891060529091e-01
-6.139516827405580024e-01 -1.250963173645107451e+00 2.200849022582085368e-01
4.737415728436879525e-01 -6.850608226074338392e-01 -1.837025246355094010e-01
-9.448482081225938189e-02 8.583683398814074827e-01 -3.572725090568349415e-01
6.609997446020254852e-01 1.616464836443194941e-01 2.435671445778116728e-01
2.658967628549375739e-01 -9.185162012704002621e-02 -8.910860062080888655e-03
7.588598605753754667e-01 7.823580658281840128e-01 9.152251122100665270e-01
2.241936823043765070e+00 -5.924734143925446395e-01 -1.576528296919207928e-01
1.491568254151139916e+00 -1.690194363978818837e+00 1.201966326426840759e+00
1.830671169270927656e+00 1.466371118194230272e+00 1.611709461785669761e+00
-9.847719911133767656e-01 1.124691096077965469e+00 1.682944543655359393e+00
3.815913038332244267e-01 -5.509025657321144909e-01 1.941713684863191292e+00
-1.108415683274915908e+00 -6.566204500897540597e-02 -1.990570145541377789e+00
6.738315243195711624e-01 -1.866193629134220711e+00 -1.880555385222628662e-01
5.637917033679797768e-02 1.053301008483120693e+00 1.266026446461777866e+00
3.713990940522464146e-01 7.966172866190432966e-01 -2.325695788788593177e-01
-1.301816622641455368e+00 -1.103330398534855261e+00 6.390518911456592732e-02
-1.149551354240340162e+00 -1.255610974524265622e+00 6.041116918724851459e-01
5.760355334099206415e-01 6.585728926389249338e-01 2.032758700137650421e-01
-1.545204032252466941e+00 -7.378394477593470668e-01 3.137075143376782393e-01
5.596406321597315880e-01 -6.566793663238792989e-02 1.857743096881555867e-01
2.326450383432080715e-01 -1.328593666563733511e-01 2.161645277144601529e-01
8.489908470773680493e-01 3.132793166250408268e-01 1.243994324756856784e+00
-9.426160640624914322e-01 9.037740739179497274e-01 -6.820137050779830901e-01
-3.092568408254052770e-01 3.122670004373572783e-01 -2.581544329901481194e-01
-1.038051091640478818e+00 1.379778798940072937e+00 -1.657536071368746200e-01
1.283150532899781426e+00 -1.031796538025633314e+00 -6.409852723020285081e-01
1.051445014871010608e+00 1.724506066519237990e+00 3.615664564711409401e-01
1.278116333876388344e+00 -7.783507269071969770e-01 9.700923714955275168e-01
3.001769154046397547e-01 8.691462532835455557e-01 1.091133340249981654e+00
7.495218522639207626e-01 9.459893571849263827e-01 -4.252558834414846833e-01
-1.561363044841282671e-03 -1.589038535744894398e+00 2.847054151981961434e-01
-7.314620921310728274e-01 1.146358265299152412e+00 6.921100630377114982e-01
-1.013322300544709398e+00 -1.815102838185933543e+00 -1.402929012342397641e+00
1.741728809508508169e-01 -1.003106812433104622e+00 -1.935844459372565718e-01
8.167592198619945121e-01 -1.401814984396753561e+00 -2.480036809446667101e-01
-1.819340747217955245e+00 -5.057830654767092593e-01 1.997941536758949810e-01
-4.894643465994698017e-01 2.214787734009948217e+00 -1.526144762018599277e+00
-3.869853394873881136e-01 7.028139424197683560e-01 1.561064992458782275e+00
8.808031196930246054e-01 -1.534656154542820117e+00 2.221520996063122005e-02
2.058344161949740847e-01 9.114838199742603120e-01 1.827760953673164046e+00
1.871071470490723865e+00 -7.228798618252807451e-01 -4.072895765274271440e-01
-6.786180767923175594e-01 -1.248979303045595346e+00 2.108621455451449300e+00
-6.705589506856739213e-02 -2.116149260129912835e-01 2.482350044736968186e+00
6.304380155591469137e-01 -2.493866042245992121e-01 1.960859590768096794e+00
-1.118333783499833256e+00 -2.477423128543806419e-01 6.756379105799690254e-01
7.107931318440764423e-01 7.044930127236138928e-02 -2.884343867304218767e-01
9.360372110267876078e-01 -3.954573251733253247e-01 -1.010044086739808389e+00
-1.350674591530043323e+00 4.979226069948042288e-01 2.444860721168737594e-01
-6.386074317336714462e-03 1.439090748054851765e-01 2.899260044569912931e-01
3.740913037700150517e-02 7.308821346205032210e-01 -3.016478489257160001e-01
-1.202210397982661272e+00 -1.125027761461440817e-01 -1.613795440452189534e-01
-7.857462291908371421e-01 2.626115022394149623e+00 -7.702279379034945306e-01
-1.027114698580303243e+00 -5.504558840306701395e-01 7.825594121345791354e-01
8.373627922900809262e-01 3.133623777145900235e-01 9.625745658000162130e-01
3.334975684106360916e+00 5.572615546940876685e-01 -2.340356145234455745e-02
2.983138343265773762e-01 4.468236301976628577e-01 -1.827480882635527548e+00
-7.114694429148604726e-01 -1.651503052907525582e-01 -3.264794760200020463e-01
-2.286460698157596616e-01 -1.171318386809723000e+00 -9.537705400899851860e-01
4.129459908328360074e-01 -1.540096554030335518e+00 -1.459817001440258499e+00
1.323863338368486686e-01 -5.476181424431766365e-01 -1.253195592077206211e+00
9.666459506351199327e-01 -1.034024488667409647e-01 2.215136509377426677e-01
-3.166018390964931428e-01 2.729746042189833966e-01 3.805132587428636248e-01
-1.651527923814474219e+00 -1.588582265896824719e+00 -3.195791923848531724e+00
1.608741306009994432e+00 5.962831950334900322e-01 2.884729787919275146e-01
6.116533131468564477e-01 7.513342613329260233e-01 -1.176848322479586262e+00
-8.355591823436671062e-01 7.836865537304981144e-01 -2.578753056285014167e-01
1.138947455151325450e+00 4.032726899411601673e-01 -8.734431681395201652e-01
5.275299058465805491e-01 -2.074697383732980072e+00 -1.084400028154081985e+00
1.145796747662161663e-01 -3.676840476740778074e-02 -7.828283030675865506e-01
5.386002159339502438e-01 -2.248038788010043032e-01 -6.796555328222351200e-01
4.181928812625173575e-01 1.234986155910354905e-01 -2.010897629763573613e-01
-4.268307106806428775e-01 9.562331688838553445e-01 -1.587143980111599961e-01
-2.144795101806731719e+00 2.660176686505821286e-01 -2.906711264903866887e+00
9.593328314377580490e-01 1.300757117677411534e+00 -1.793485832551083847e+00
-1.266260060438162194e+00 1.622084779807704269e+00 1.225175318084068266e-01
-7.546819140985282504e-01 -1.199345222356289709e+00 -2.215836359170380909e+00
-8.419538044508032559e-01 6.156852515835691264e-01 9.201062170605985857e-01
3.348231389477452358e-01 -2.301461186934675052e+00 4.765844925365120832e-01
2.528740845650670477e-02 3.794775986644927102e-01 -6.823884085582261338e-01
-5.197722810584122222e-01 -1.390940259456013850e-01 -4.441494919095572147e-01
-8.773694438005531504e-01 -1.363336182619254988e-01 2.919900326621006625e-01
-1.504959509059439648e+00 -2.478254445485294777e-01 -1.038999031892842595e+00
7.115196501020464026e-02 2.667996730019248641e+00 1.505416946057782868e+00
-1.173206242191371096e-01 -1.631476285315747399e+00 -6.627082288369319507e-02
2.927351946953119288e+00 7.990488158056033852e-01 -1.119243585254767748e+00
1.117234488201379605e+00 -1.682078019640375510e+00 3.397759066232227676e-01
-9.070379844662976865e-01 -5.766041594025447109e-02 1.368948860752463581e+00
1.778360864995663926e+00 1.803403560634784020e+00 -2.943698759739130644e-01
-2.881447703839135066e-01 6.820712536194036835e-01 -3.611366472893336871e-02
-4.361691399736012942e-01 9.418234725957674858e-01 -4.274962090255762792e-01
-6.754324813733597610e-01 -2.492394641901883034e-01 6.855020150254923506e-01
8.929868090757109300e-01 1.072743492320766157e+00 8.533531169157694274e-01
1.435749583984815780e+00 1.371232671480828058e+00 -1.034980080733077790e+00
9.388131454394584852e-01 -1.908164795093010568e-01 2.156977166028679616e-01
1.483345038338848232e+00 -1.299138514949850221e+00 6.688510669719216484e-01
-2.416986457362263252e+00 2.835967757931449618e-01 2.677439106974388583e-01
4.704758113673468412e-01 -9.472890098432444894e-01 -9.901123977024263445e-02
8.052953545263502599e-01 1.744366988536593388e-01 5.854049222774134753e-01
-3.119589793661820543e-01 6.807115838479447234e-01 2.029406429907570697e+00
-3.269912164623996476e-01 -2.452936282780837640e-01 -1.447243751738655604e+00
1.562199388427248037e+00 -1.564873062140256899e+00 -1.220961006884573763e+00
2.021411431409298465e-01 -4.861604033364960720e-01 -1.079514814075489826e-01
1.575899327397189964e+00 -8.575483434607406030e-01 -1.023446879918662900e+00
-5.452512393715035488e-01 5.152241469343725455e-02 -3.691347989223994763e-01
-9.974380888071483486e-01 -9.781526656862241098e-02 -2.535386360072892309e+00
-1.381562941514940801e-01 -1.375390649173036994e+00 -3.194006706565636899e-01
-7.535706771556355266e-01 -9.716991916077075686e-01 -9.037320194255128447e-01
-5.385559130350454637e-01 -2.151378665705727222e+00 4.707369502189536759e-01
1.918466157737012401e-01 2.572164842326859491e-01 1.247790445588354141e-01
-1.373796599244616834e+00 2.914864637879186621e-02 -2.247029765439411797e+00
-4.137943023850153557e-01 -1.190541179768888624e-01 -7.585058372107229552e-01
1.948140945061447971e+00 -8.547013307444743802e-02 -9.734961816660995249e-01
1.628832798383705871e+00 4.340244668380198179e-01 1.475273424044817004e-02
-6.065836497811080696e-02 -6.773257746945475777e-01 -9.262275410763167738e-01
1.623446005948123050e+00 -1.264938973487820528e-01 1.377541870792504675e+00
-5.482082536804320227e-01 3.652245574428751307e-01 -1.673298574738213196e+00
8.443653936905924640e-02 7.112536636931676703e-01 -5.954947498224973934e-01
-2.809662879999664242e-01 3.676227630112532396e-01 -7.149404752954316988e-01
-1.316405512155775955e-02 -2.068837285446741836e-01 -3.654953453806967234e-01
-2.044704395637040317e+00 -8.867354144202655997e-01 5.195135805556455599e-01
1.566958881695116323e+00 9.463350256068260302e-01 3.778821943496924463e-01
-1.572508733214464660e-01 7.851793959968351722e-01 8.379841069502694251e-02
-1.810267972754600330e-01 -3.103415666811109919e+00 -1.642066809213359235e+00
-1.819704620440263598e+00 -5.354938294619208117e-01 -4.242477008203623945e-01
-6.053020989408655073e-01 1.828689814464094177e+00 3.132950169263944845e-02
-7.220899717043943733e-01 -7.662083713255218864e-01 1.115028746603474064e+00
1.334699076882576718e-01 7.574443945031940073e-01 -3.743892451642362174e-01
-3.092643312030101121e-01 -3.250389927839963250e-02 8.563794223624963120e-01
2.046907291647486749e-01 -9.172288133823446321e-01 1.046475021341267464e+00
-6.357116205872515025e-01 6.723468041013640206e-02 -8.370252665885635768e-01
-9.336608169509880151e-01 -2.638318028088337264e-01 7.734209701317060759e-01
2.441488363179737664e-01 6.083504185740455650e-02 -1.047400407805808342e+00
-1.365656754338284484e+00 9.738356708536024531e-01 -4.428434771256865576e-01
4.512787738313040475e-01 -4.137324043543875174e-01 -1.444403006612426710e+00
-7.686111793574356144e-01 -1.005255993743783716e+00 1.350523724205684006e+00
1.780379983094194929e-02 -3.118944734884874781e-01 1.005976043218731325e-01
-9.798387722116844722e-01 -1.103910702011146050e-01 2.975093424737384473e-01
-3.564761242609847947e-01 4.554055893521083420e-01 -1.120070737614167644e+00
-5.487586665411473552e-01 3.067310610678986582e-01 9.931951315961326521e-02
1.276905708015649843e+00 1.327777348672104729e+00 -8.224404815068915298e-01
-2.439278360946720015e-01 5.674693882623002006e-01 -8.847689762359861598e-01
6.674174300646640301e-02 5.932087474117690995e-01 -5.120529078366149456e-01
-9.654364465058865030e-02 -1.266539985400352286e+00 -4.805290276698922711e-03
-1.976091575407339096e-02 -6.263895934860352899e-02 -1.208746363879610097e+00
4.379025960312024068e-01 -1.005609633311034923e+00 -1.985360188373936019e+00
1.068559819563186380e-01 5.087672784329695386e-01 -5.504155177884014760e-01
-2.265849241909725642e-01 -1.615178838882489254e+00 5.983095582039362759e-01
-1.597404266925391170e+00 -1.597792903447937674e+00 7.088789291615784638e-01
-9.334681043989420113e-01 -4.421911167969439505e-01 -7.711798387088878437e-01
-7.525641695201309433e-01 6.906234022020041330e-02 -1.715802528207936550e+00
4.862353737656421870e-01 -4.731183876341434891e-01 -7.754575302393477143e-01
8.578152461198735867e-01 -9.201047012575780870e-04 -5.701774574219965475e-01
1.615901653875718713e-01 1.935399597098576674e+00 -7.385171730132272794e-01
-2.994146680330365129e-01 -1.272983450288430962e+00 1.278428047302593740e+00
5.630693645251764190e-01 8.497493163359125246e-02 5.285692560053909667e-02
2.133846626988460116e-01 -2.862127675657730741e-01 -2.376934273275804532e+00
6.991045907058031084e-01 1.321125933424609489e+00 -6.903272237513207177e-01
9.250265371735936215e-01 -4.307163042624241878e-01 -1.569638203173728541e-01
-1.397874263259194227e-01 -3.484659647956097617e-01 -9.027596818777120502e-01
5.883941253212265909e-01 -1.976077745496480076e-01 1.116450527769989209e+00
1.746840858758044179e+00 -4.178579600386601034e-01 6.572319654060115868e-01
-4.949226837050167971e-01 5.898070044724392780e-01 -1.098966279296393900e+00
-9.678844321060270373e-01 -3.575086495816641730e-01 2.081082818928108313e+00
-1.936238273630260576e+00 7.907085927640868095e-02 6.833291972171255946e-01
-1.032417067739364924e+00 -4.490414037049380025e-01 -7.756676410828832191e-01
-1.007770625803896536e+00 5.265440304650482739e-01 1.122564800747209546e+00
-1.089022253571748422e+00 7.009345388838534863e-01 -2.935161701191733585e-01
4.839124524769650715e-01 2.297896168960107399e+00 -1.215097199283960316e+00
-1.581357375120568509e+00 5.205013542804682869e-01 -4.959449816454518656e-01
-5.701672134947627368e-01 -1.606945680687221989e+00 5.293112415722712738e-01
2.476557082058043757e-01 -7.279903309563794389e-01 -3.534735052140206557e-01
1.179175600848072047e+00 -6.794751426852012610e-01 -1.244396038179297781e+00
-1.215981458747752209e+00 6.813339393817793299e-01 -3.539265425083655270e-01
1.092342017444035251e+00 1.605609705601319590e-02 -2.084165890042052549e+00
8.424638422131716098e-01 1.038765218201596063e+00 5.720843379050571942e-01
4.878696728767411561e-01 -2.333455842816259673e-01 1.020275545455666538e-01
-2.520497733954120689e-01 1.666021641453483859e+00 2.347905268062747963e-01
4.583732750770495579e-01 2.629349113503703372e-01 -5.286584467065957860e-01
-3.290771054463620393e-01 -1.544173499030879193e-01 -3.037541692764855750e-01
-4.517747525270300324e-01 7.118590392270619516e-01 -1.172203279433688294e+00
2.922406457325713580e-01 7.885288964901931985e-01 2.074914383921647953e+00
-1.061322338148702693e+00 -6.434611791909031764e-01 -1.081781806700555792e-01
1.105290551850313996e+00 -6.933068787226502605e-02 1.614557769446734348e+00
-5.408699100149666657e-03 1.639420813763273310e+00 -1.376299152963148975e+00
8.581379735355252336e-01 8.641389529759856414e-01 6.453181094253616079e-01
-1.128236825471539362e+00 1.439445061597427244e+00 5.101809297402271071e-01
1.719277936607737312e+00 5.722885345407727753e-01 -7.466550922184759242e-01
-9.314350713145249649e-01 2.560620444654807537e-01 2.706389885261437200e+00
7.746685080308709503e-01 2.267446484522931627e+00 -1.298840201550828799e-01
1.740394445942580859e+00 1.738977998917787815e+00 -1.466312189790212051e+00
-1.542247001041582966e+00 2.178098607676192885e-02 -1.269978117424831743e-01
8.665533197939326859e-01 8.852989847103632792e-01 -4.007653490037172972e-01
9.096161380948442066e-01 -1.980936549360752807e-01 -7.592787188507085228e-01
5.044301440222956900e-01 2.976985066481722342e+00 -4.144072570503324338e-01
1.524422822911415620e+00 1.342714164909318386e+00 -8.539762984321341843e-01
3.581857290540229055e-01 2.263706494755733656e-01 -5.954140349992314007e-01
-7.191943332360283270e-01 1.645729370869442265e+00 -9.318107034353518836e-01
-6.589830128621438909e-01 -8.883023894442962920e-01 1.295218042587720393e-02
-8.771040903577638215e-01 -8.373876360102019412e-01 5.193832327263630394e-02
1.828733204919672062e+00 7.298819878658043825e-01 -8.780322116609930172e-02
-1.947040728144004751e+00 5.583873371670892150e-01 -3.391244395525743194e-01
4.231704667092124339e-01 -6.573655118042054379e-02 -5.620854599116221761e-01
7.867223907447849773e-02 -1.131930223059609997e+00 -1.513305443546061113e+00
1.703275390830193137e-02 -5.360243962371203930e-01 -7.382240157467705455e-01
-5.098156741410596604e-01 -4.288926948093305103e-01 1.360006493817039308e+00
-2.007626015909497463e-01 8.177973783250394035e-01 -1.086170226114946180e+00
-9.789893627125245690e-01 1.595805766612394594e+00 -1.237075148607355707e-01
-8.058206278952960711e-01 -7.696241569819913808e-01 8.062928172300498630e-01
1.587727610486147078e+00 -1.443723610850062566e-01 -2.686167955808290222e-02
8.841887781096964272e-01 1.539346022588458984e+00 2.843302860884729111e-02
8.451240251904500456e-01 1.654358352297334023e-01 -2.066416342862569699e+00
8.941296890678579468e-01 -1.689972290968784874e+00 -6.021331235836059337e-01
-1.664010879321700553e+00 -2.177176266440328245e+00 1.178074331623379933e+00
-1.841157328493213396e-02 9.728726821579124495e-01 -4.710190908945283139e-01
-6.589030166867644311e-01 -6.169107576401047233e-01 -1.961702711346591022e+00
7.877104415218157962e-01 -1.967133293333142019e+00 7.790259817678024667e-01
7.405468782420764340e-01 -1.518537011301935635e+00 8.191433546765204410e-01
2.507105736542749042e-01 -2.338315871671548862e+00 2.123208022208419532e+00
7.807803433868990561e-01 -3.419506064881241980e-01 9.813410491756998644e-01
6.055427881234123344e-01 -1.701952142853716266e-01 1.092752058079791283e-01
-9.226500967396754627e-01 1.461459090223702351e+00 -8.027807004311278138e-01
2.819391569593847000e-02 -7.902906044230832983e-01 -1.057581042453767717e+00
9.798062022934681536e-01 -1.888205973566621898e+00 1.569304307713124569e+00
1.100088156068617984e+00 3.289839358468186342e-02 3.238299037442767675e-02
1.033820571797621435e+00 -8.911985686618583147e-01 -4.723575686329174739e-02
2.254650947274872141e+00 -3.691014154169439121e-01 -4.434626020588492423e-01
1.892366498534101549e+00 -6.620415131403991627e-01 -1.141818375985415246e+00
-5.009508225874215182e-01 -7.935444457128073559e-01 1.060016026749318607e+00
-6.582069423085918913e-01 9.188039924901124644e-01 1.178332234754671859e+00
-3.850171760694924561e-02 -3.115833110943435624e-01 -1.531002385611826444e+00
2.501022828129037201e+00 8.976275529451048785e-01 2.430538945878383816e-01
3.144374828340620320e-01 3.221498796747825910e-01 -1.163836785711311661e+00
1.126050646191494975e+00 -1.231862613019507391e+00 6.699151576461905844e-01
-4.981685261910609452e-01 8.669654773651398472e-01 -1.060647086803548245e+00
7.214234833817421144e-01 -2.165183811606948616e+00 8.021861392083371456e-01
-1.833668798904181108e+00 2.494096516120464901e+00 8.063793670633150057e-02
-1.187314112337262362e+00 -1.268083552173195683e+00 -2.186129580811969397e+00
-1.451205745871576358e+00 1.630049072195488558e+00 7.137986952318952083e-01
3.315529695258014442e+00 1.076560546464675250e+00 9.493485739909737209e-01
2.611310608215586804e+00 6.768560285439487734e-01 6.178811091968510194e-01
-7.230116067586728201e-01 1.571992334399765046e+00 1.401137521692603416e+00
-4.853245756927695442e-01 -2.934406385940484974e+00 7.376625178677025108e-02
-3.527145100458066729e-01 1.178684193121264601e+00 5.602189246421486191e-01
-4.185527522806533618e-01 -2.902585977744424728e+00 -5.445409196202272151e-01
1.785000156474416011e+00 -3.140633933285416624e-01 5.495728539260915646e-01
-7.667843500989365291e-01 -5.832218278061336303e-01 -1.617746579877582525e+00
-6.140713925507580440e-01 -3.324071646444022865e-01 -5.580615766124895627e-01
-7.238245852088751597e-01 -4.082092853434354796e-01 1.958800223177794120e+00
-1.789839571286055531e+00 6.540043909085385687e-01 -2.901478317286774189e-01
9.534129254737498949e-01 8.030966361681297627e-01 -1.090882675185821382e+00
1.081494962990621644e+00 -9.019441546915154539e-01 -5.526719695131431243e-01
-1.367836884435059241e+00 3.066257601116587628e-01 2.020682770316430510e+00
5.291838844214071802e-01 -4.835818713780543066e-01 2.430819987856269737e-02
-5.541367422690266498e-01 -1.113314067447441547e+00 -1.176489767577889367e+00
-1.219669795088352826e-01 1.255102943058073461e-01 1.779631214935518679e+00
1.610521100395143401e+00 -1.686950915583890431e+00 3.507166809674446342e-03
1.880358718526498052e-01 -1.505057503386749040e+00 1.049149622947194604e+00
1.390480487526250863e+00 -1.083137856266870314e+00 1.771691753884697684e+00
-1.502650247561986063e+00 1.734421504007204407e+00 -2.082558261315654136e+00
3.119616620723590028e+00 -3.515157130463361645e-01 1.722378029547847744e-01
-1.273624284184775135e+00 -6.892338364165255804e-01 9.216967594300214950e-01
-1.413387116174266378e+00 6.135272532021198710e-01 9.320889393291790226e-01
-7.152183939386960176e-01 -7.192082941505908433e-01 6.624535526585805245e-01
-8.284792886828270531e-01 -6.205027614490851023e-02 -1.414939419385017105e+00
1.363776648262671753e-01 2.165898988230262057e-01 -4.227364086160764756e-01
1.389656242170683904e-02 6.808339592466552403e-01 -9.184569712483151571e-01
-3.846560945686841038e-01 -1.818349161051108442e+00 -1.916794988200084537e-01
9.153221678701531916e-01 5.108085761091909482e-01 1.880970550418588738e+00
-6.406346411713539357e-01 -7.355470945049989995e-01 -2.094249907631943852e+00
-3.210695205282847881e-02 -1.231836447859839812e-01 -9.696720455881158163e-01
1.132741037754411151e+00 1.429516031137026078e+00 -2.691000426116904251e-02
-2.885865352298547237e-01 4.942439947707313319e-01 -1.951672752333961203e+00
-4.632074350583503114e-02 2.610090307913845109e+00 3.764622037774946750e-01
-2.678094445288307646e-01 1.140420275702668462e+00 -2.238181574174986574e-02
-2.690592434667431476e-01 -7.168003621852412355e-01 5.279471933118166094e-01
6.801651340147811531e-02 -3.600987140772263229e-01 2.934018689084186837e-01
9.582393352095852634e-01 5.380947347273827841e-01 7.112651195390700121e-01
-1.908933485521339790e+00 9.245772918566673715e-01 -7.730507105888739794e-01
1.536472224604747305e+00 -1.327046744172937220e+00 9.544855545763160365e-02
7.711011483991963011e-01 -1.394885037854743493e+00 2.056680718567745814e+00
-7.325273998746997250e-01 -3.976750776246918972e-01 -9.453061184954423268e-01
8.409663966748520680e-02 -1.506064115397647729e+00 -1.889169029152886425e+00
1.545018834256314921e+00 -7.417087735341099108e-01 2.611377836764172677e-01
1.113097818758587154e+00 -4.412854410911376535e-01 -1.260234202293945227e+00
-2.509259015969236728e+00 -2.760093536690878535e-01 3.166934210714917874e-01
3.408956298578396660e-01 6.912910297969067086e-01 -6.791416488364196979e-01
4.238736652887190037e-01 -4.462528049899994187e-01 -1.385591387247451234e+00
1.266501649905048987e+00 1.793901240282829823e+00 3.472077875702446192e-01
1.632615943658467073e+00 -2.317651518068522543e-01 1.206232216490238596e+00
-9.608895244160675642e-01 -1.483430335351480951e-02 -1.922699702055766582e-02
-2.678210439136871290e+00 -8.346041942890398690e-01 -3.491973824622824907e-01
2.827258140660241295e-02 7.397680838697276995e-01 -6.044836029564231161e-01
-1.311564270030917800e+00 -2.277798092967338484e+00 -9.215226573635311169e-01
-2.460151866945835819e-01 8.185530503414149006e-01 8.461257460951455700e-01
-2.024680638626690232e+00 -2.083182600534053130e-01 4.278668927352395346e-01
2.211206726913082787e-02 7.277192864571893072e-01 1.161251876652882320e+00
1.197954311095575708e+00 6.033637391562776120e-01 -2.295844167404480718e+00
-9.167406086181801861e-01 1.831591073613737963e+00 2.971566224551619673e+00
-1.046889321816600660e+00 -1.392411803340474652e+00 9.328353501837909345e-01
3.150916813627010482e-01 -1.043923322824018340e+00 -6.687334450031321431e-01
6.799907712047313924e-01 -6.423615281320831372e-01 1.231775498665154400e-01
-9.271980863037191378e-01 -2.567980595234408137e-01 1.221238482022654337e-01
-1.469008357218514194e+00 -1.860598236187529508e+00 1.106931141777869887e-01
-1.074617107751387968e+00 4.313786592677613663e-01 2.779291940552063522e+00
-2.070587737213508417e-01 8.841213429566044946e-01 -5.659093489901947382e-01
-5.577071487147399198e-01 -3.381282481982831323e-01 6.681188173773909833e-01
2.828286240714117383e+00 1.173985714254229595e+00 1.921196022810802428e-01
-1.504857651114073769e-01 2.752231507840519620e-01 -6.894497256133870211e-01
7.121055364693980316e-02 3.871609757243489103e+00 -9.919047068359871933e-01
-3.908970361367618551e-01 -8.946206609186617420e-02 5.202960026929233095e-01
8.238567615583732850e-01 8.128176053102298404e-01 7.774951980326885170e-01
-7.523941697022732411e-01 -5.095569516827349599e-01 -2.936113823102032838e-01
-4.755308931248367066e-01 -3.375286175700703550e-01 1.376655603619092449e+00
-5.375843732073655457e-02 2.713460688638372753e-01 6.088321028274827906e-01
6.754554312812419137e-02 6.753469167866132938e-01 -9.208517751208724622e-01
-4.049744137411356859e-01 -2.160116013184366079e-01 7.337514160792315554e-01
-2.676749010633624692e+00 1.984643633277600072e+00 -1.006739222991419824e+00
1.027218469064202111e+00 5.853420066298984370e-01 2.287637916891925194e+00
-1.287089703726648215e-01 -3.364189413478808205e-02 -8.745596442736042198e-01
-1.934665743106861679e+00 -1.615340095651250918e+00 -3.021269111756132997e-01
4.673089894087913143e-02 6.975149798545769997e-01 5.369730168496825162e-02
3.946136105457276888e-01 2.776935755555891006e-01 3.201121376422011999e-01
9.261840366953533188e-01 -1.124780341963864005e+00 8.048040294758129765e-01
-5.260174960049222026e-01 -7.703305755600049487e-01 -4.589959430675462637e-01
-7.217342992709497862e-01 9.750452798110887942e-01 -2.384815599868224945e-01
4.688760268432735079e-01 1.122447640916543365e+00 4.923503047975595903e-01
-6.126835597708872871e-01 1.089962793053114443e-01 3.204931669430806374e-02
2.243612751457292553e+00 -7.483702914921269711e-01 -8.073252552947154381e-01
3.176350599238164096e-01 -3.335733726276134403e-01 8.921816114976516277e-01
7.449795089760964384e-01 7.478555730698319692e-01 -4.586447814485889590e-02
-1.429871223605392538e+00 1.191323838239826793e+00 -1.492725514640672602e+00
-7.482460464339927286e-01 -5.068745447755639288e-01 -1.288065383659176555e-01
-5.559413092318962191e-01 -4.238676739757926692e-02 7.018238822861666559e-01
-8.785692990918037015e-02 -5.378578166695625606e-01 1.610631238602031889e-01
1.139158068188242057e+00 -3.721177549093898640e-02 -4.974519655256404715e-01
-3.422763506570551950e-01 -1.806577024756145233e-01 4.573532148535925934e-01
2.025939937294505000e-01 1.240805016904534153e+00 -9.689620237152003490e-01
1.531761710922283082e-01 7.486595666719750852e-01 -4.515651069661071743e-02
-7.415365466245880111e-01 1.822683003708441829e-01 -6.332355833437297576e-02
-7.964556616096156727e-01 -9.292700225768822653e-02 -6.233463437149796560e-01
7.161032097269305341e-01 2.975370997926275463e-01 8.521700011641024641e-01
-1.045335056807425445e-01 4.301762360002071850e-02 7.029940931082677702e-01
8.535863507355418989e-01 1.835812549211466527e+00 1.530744108538470538e+00
1.281000365123770690e+00 -1.074253810115211039e+00 -9.631406363651197067e-01
-7.796625764062860009e-01 -6.073864911194156724e-01 -7.986275719156346042e-01
1.050489317197549788e+00 -4.889462885322565233e-01 -2.004711593612598652e-01
3.687824503734678516e-01 -9.801185930958908887e-01 -1.371981837422052486e+00
-1.781432153010787278e+00 1.232961107797357680e+00 8.690297401341923189e-01
8.670186812578428714e-01 -3.873266776881154616e-01 -2.178288985753036588e-01
-9.926952609164827468e-01 5.011630117548786512e-01 2.629782025391239064e-01
1.337027415448991841e+00 -1.339385598305270486e+00 -6.402134095107372969e-02
1.133746245296844313e+00 -2.071149393063034250e-01 -1.859783792511369382e+00
-7.752597460859500522e-01 2.847278725883950479e-01 -1.174846957614881671e+00
1.490751037541082846e+00 1.446375764412463294e+00 -3.918610428142160207e-01
7.142928577004165058e-01 1.911232552433491938e-01 5.671111900958467622e-01
2.973848001179090761e-01 -1.044310591713189629e+00 3.023850353361973164e-01
-1.648723778524551764e-01 1.072717094753681127e-01 -1.029367130215375764e-01
-5.021246983258081942e-01 -5.610258835305436120e-01 3.691111119126239126e-01
5.035721351444620852e-01 8.318934752079529815e-01 4.521401945802485112e-01
7.556200604522155251e-01 3.380015354683972295e-01 -9.663007849727416054e-02
-4.131064003269560025e-01 8.266512929247120667e-01 -1.306304502264155953e+00
-2.481164014322345679e-01 -9.390867593092792065e-01 -3.613514890772463461e-01
-1.218315404856560313e+00 1.072226745664344394e+00 3.521971541317831522e-01
-6.141125566651189915e-01 3.065634030821524636e-01 1.694223758569789684e+00
-6.311395392507844759e-01 -1.273825341969765379e+00 6.621021683436886240e-01
-6.550928573828808110e-01 -6.303338685543953268e-01 1.352867889463633011e+00
1.223419897514690602e+00 -3.465978494636969831e-01 -1.407325009810101557e+00
-1.827085271030871372e+00 7.781784511125574566e-01 -6.994804929694901086e-01
2.721922929117256418e-01 -2.797093830509452261e-01 1.774500163838161670e+00
-2.733329975010654889e-01 8.479817553638668848e-01 6.781069420713944362e-01
1.403598220366689464e+00 -4.431580667650757976e-01 -2.076471304180678157e-01
6.115077553376566666e-01 -4.461141740771423780e-01 9.357257034756845115e-01
2.598725992317270084e-01 4.162099504884688161e-01 6.571895989268439209e-01
1.685042326718490246e-01 -1.686274867656082921e-01 -1.095652464208239252e+00
1.010509381299287135e+00 -4.216039467555030007e-01 -1.319399116074928546e+00
-7.655366798855878230e-02 -1.308997004563454691e+00 -6.828385969639932940e-01
1.220083737311966843e+00 -9.152408178372778425e-01 1.006662597684479410e+00
1.495560356795080093e-01 6.256003275037796962e-01 1.375766012140851702e+00
1.365913296969512691e+00 6.386403979270244280e-01 -1.975228026719544894e-01
6.689086378023989532e-01 5.341105260162009039e-01 5.045628146849621132e-01
6.382140912671282473e-01 5.485106173839643384e-02 -8.888347992728952152e-01
-1.293385116268461088e+00 -1.323610531005167346e+00 5.257299820532916890e-01
-1.231583512530631808e+00 1.009109613118782445e+00 3.463417677535265415e-01
-9.840354993877926670e-01 -1.463238454802532340e+00 1.747412964770011845e+00
1.171351496996283492e+00 4.224643827101848964e-03 -1.490550695317583108e+00
-2.941538492583227193e-01 1.099900285126841348e+00 -3.614626105764111308e-02
-1.407531637605951846e-01 1.332023864889482212e+00 -4.985277852102416030e-01
6.670939141963875274e-01 6.826582652806442164e-01 5.911697133224999012e-01
-2.897961392034012484e-01 1.511355200435488821e-01 8.279155353723494093e-01
-2.252414560182829817e+00 1.028514687283325624e-01 4.325335779582472617e-01
-1.720741796465433238e+00 -2.238020028686519836e-01 -1.460090600730183097e-01
-1.012089284861584920e-01 -2.013258630010020589e+00 1.085442577702540934e+00
-7.968218745361368427e-01 6.878899457861880062e-01 -1.715860308000853873e+00
-8.539716102591674574e-01 3.516205615203273349e-01 6.064466971586773836e-01
1.408896716393464033e+00 -1.446414512318946244e+00 -1.112617834316978138e+00
2.265945749116091701e+00 -1.797675412864239597e+00 -1.051162495916110551e+00
1.113411214922041204e+00 -9.618225357621921212e-01 5.789116782946882589e-01
-3.318872783912312219e-01 -1.334838744826120527e+00 2.073680771516090093e+00
-2.670585684324020687e-02 -1.100224253152205733e+00 6.504541102286133247e-01
-8.487375473201235199e-01 1.201660347374387872e+00 -6.088535032034567696e-01
-1.142980202942770696e+00 -1.901381583805741293e+00 -9.299115760310588518e-04
-1.151248183402010739e+00 7.183287264591422527e-01 1.128139038181222631e+00
-1.603148615200824301e+00 -8.067995719947812505e-01 2.656199431303929992e-01
7.201699053712353749e-01 -6.842982339319600982e-01 5.548950730514259355e-01
1.770399365879585796e+00 1.094052202229227611e+00 -2.174477348776643559e+00
-1.200720980555639583e+00 2.601744290079758937e+00 -3.944453767251361320e-01
-5.014168205474225370e-01 3.783628634379956335e-01 -3.667916089276062608e-01
-6.157968319581410555e-01 1.507131044976675716e+00 -2.228079098538605418e+00
1.143076192243559053e+00 -1.094637439408515434e+00 -4.209663740022445873e-03
-1.914586994110866469e-01 1.994250901111429997e+00 5.005507776581936685e-01
6.769530701311800014e-01 -5.918219700275876294e-01 8.446940852656505128e-02
5.008970163818103893e-01 2.825860830058081197e-01 1.339806488006670682e+00
1.666506665726252612e+00 -9.870438072689801112e-01 2.006716003188003139e+00
2.548070328878550631e-02 -2.434883706594475616e-01 2.948508386674158488e-01
1.929963568613917158e+00 -2.538311212459394284e-01 -3.944506728020800157e-01
6.220241139260038743e-01 -8.392535136495161696e-01 -1.557876145328152273e-01
1.718736459142338413e+00 1.382118061290115163e+00 1.295216730063591060e+00
-2.749791635478335827e-01 2.734053373406104104e+00 -1.167450494430074093e+00
-1.346006171873303181e+00 -4.164745914619205213e-04 2.836875885121101781e+00
1.582355400081635999e+00 2.361101994362002188e+00 2.625426182223296934e+00
8.822182566685182747e-01 -3.052365173772126905e-01 7.938740744097425583e-01
-3.470235943801354139e-01 -3.418558060956474187e-01 9.519280120785156285e-01
-1.676079881804674598e-01 -1.350381594190511070e+00 2.574390148089004127e-01
3.856390931478787532e-01 2.044774072657576269e+00 -1.366353037029155448e+00
8.680789450151854547e-01 1.928227721509746972e+00 -4.226153593417063536e-01
-1.219763675887581611e+00 -3.825167741580787761e-01 -4.939044102946810177e-01
-1.051900643869024377e+00 -1.058467826303815640e+00 -1.903871308998771328e-01
-4.771246162698670190e-01 3.128657793647792729e-01 4.208772447207801415e-01
-5.092772278904441619e-01 4.800517176484788151e-01 7.348888402851211366e-01
-2.210805386786373616e-01 4.569553723941436330e-01 1.939165305743908996e-02
1.173570141474125084e+00 1.034659107289823965e-01 -4.797909009463810492e-01
8.120181269407602542e-01 -2.074383832801701411e-01 4.657919646313570250e-01
8.925220805706586269e-01 1.176490670451278753e+00 9.453493666517877314e-02
-1.649516302264877998e+00 1.206369811104031076e+00 -8.728989088733779544e-01
-6.182448570393176412e-01 1.476230974515095440e+00 8.824436717969012800e-02
-8.582367618278898824e-01 3.565640686014879823e-01 1.023131922561049345e+00
-2.222031973411553174e-01 6.477769240973940690e-01 2.295864414422670308e-01
-3.897757777672916091e-01 2.381844358203594469e-01 1.290782274981858713e+00
-1.851083439908634554e-01 1.473923408908268007e+00 -1.435217762401902020e+00
-4.994282781722704789e-01 3.648462472416663660e-01 -5.333417244294531567e-01
1.096048497194173521e+00 6.212144308880657162e-01 -3.429566041761794581e-01
-2.845334258801908600e+00 -3.572544347813648713e-01 2.444565299206701847e-01
5.460172709925311674e-01 -2.263996193370897414e-01 -3.627144176405736609e-01
-4.136130427149266042e-01 -1.411155155668550210e+00 1.397060173250493087e-01
-8.868972138658820503e-01 1.537085282424020871e+00 1.176583001542814921e+00
3.215415189017297726e-01 -7.439499674336802482e-02 -1.149720329939120766e+00
1.011504961309483308e+00 -1.100800359081262503e+00 -9.852043494450092309e-01
-2.069516834559750773e+00 -1.108739199665183639e+00 9.198217779921809001e-01
-9.812588375936960317e-01 -1.045572427082023026e+00 4.794178400004798363e-02
5.964180114264997501e-01 -3.413443200685664647e-01 7.725877962160516976e-02
-6.097903303213291215e-01 4.706386509810513985e-01 -4.914211657221136120e-02
-2.417606690679958703e+00 -1.322920394806352151e+00 -5.056040898123166372e-01
-4.679886893011477311e-01 -1.191355411051381541e+00 -2.153568286836302192e+00
4.041033143704481773e-02 -1.062572533935128849e+00 -5.881110929492588957e-01
-2.038179099919519843e-01 -3.381838987709803734e-01 -6.363286855934978670e-01
-1.232188348715463011e+00 -8.878253415497718848e-01 -1.778986486198353978e-01
-9.369663446665407180e-01 -5.320049112481131104e-01 -3.724684719570911517e-01
-5.476083891687369976e-01 1.992512774020913868e+00 9.340025257762500921e-01
1.125691595771032727e+00 9.466208438084793286e-01 4.229227218584055148e-01
-6.865207382994036323e-01 2.005819825957889935e-01 -6.049297418090200384e-01
-2.076443851581979139e-01 -7.648591772799053778e-01 2.235831816127938687e+00
-5.364815399754080394e-01 2.817919838588208714e-01 -2.696339611082112508e-01
-1.464497512088422937e+00 3.189870414740842430e-01 -6.805483575744400992e-01
9.332586226667404228e-01 5.586511229240610499e-01 -2.051117635165909669e-02
2.024370028416380696e-01 1.110767544136264107e+00 -1.341588057594143846e-01
4.748765804674922597e-01 1.389751070492486695e+00 -1.821334824850537659e+00
9.834794168361082889e-01 7.831812980411039238e-01 -3.652027562763936475e-01
1.816934943701161265e+00 -4.681340361213645607e-02 4.676235676164102739e-01
-1.755346702539340442e-01 -6.450671329250826647e-01 -5.540674641180682869e-01
2.439151728579261880e-01 1.426097789938681304e+00 -5.832553426849498845e-02
1.602143394377332497e-01 -1.006288912617356868e+00 -1.121084676328385710e+00
-7.756039215906139761e-01 4.666088415133982648e-01 3.029071826988788147e-03
1.391020545335958758e+00 1.763085576469577975e-01 5.071843849327385412e-01
6.779381637914744241e-01 -4.807301800907000100e-01 -4.424069064673711860e-01
-5.325383268427493766e-01 -8.837493442252523090e-01 4.712504914819860002e-01
3.931373300288542594e-01 -1.881331752850876338e-01 5.776114476996740965e-01
8.513361835757318197e-01 -1.931906258852661429e-01 4.300710808493844461e-01
-1.672177500931638361e-01 -2.814885323131084416e-01 6.211160543664711042e-01
2.038243441396180522e+00 1.939902387913418347e-01 -1.188593283369336895e+00
-8.814619068322641082e-01 5.791580547982812938e-03 -4.185951558630255920e-01
9.776311421059373785e-01 8.605138163308639898e-01 -4.285517135518066567e-01
1.385084099681803960e-01 -3.232535893072807642e-01 -1.354216949484579491e+00
2.330537828856004690e-01 7.673801341482311411e-01 -4.081328333406243347e-01
-5.867644587355786978e-01 3.505136166976425410e-02 -2.505050568035695480e-01
1.058029972966163523e+00 -1.318772518049555476e-01 5.440013041974298691e-01
-4.697791605200004605e-01 -1.534885799189932953e+00 -1.778974656547062105e-01
-9.625766069350000231e-01 -2.202365166426439314e-01 -2.215948067697657009e-01
-1.957420275959845801e+00 4.394583698785101689e-01 -2.423520289131409280e-02
4.796765683198728203e-02 9.970292420082037255e-03 6.790690164024468789e-01
-1.398529367589336214e+00 -1.390439732518068405e-01 -4.028423673493559121e-01
9.652064377088768188e-01 1.466006544793833966e+00 7.989222032586663635e-01
1.362315902240138543e+00 8.589168332158776398e-01 -2.789201549725039420e-01
-9.809399943063938920e-01 7.840700586744485667e-01 2.716332772148923880e-01
2.660869269972509360e-02 9.026895370323542167e-01 -4.610235062325689359e-01
-7.357451439011173377e-01 -2.107237790595283683e-02 2.616615646264413078e-02
1.613842204576243777e-01 3.852122982665735496e-01 2.070182483636590909e-01
3.301352922727242012e-01 -1.433951059948395668e-01 1.147280061937371171e-01
5.983253180486951539e-01 -1.072896441917261745e+00 -1.221219684898158908e+00
-3.575802649584483572e-01 4.970197256836521582e-01 -8.335750434640308570e-02
-6.388977867051558457e-01 7.726817727688004567e-01 9.299969450829250750e-01
-9.100854585383130191e-01 -2.828052652932179223e-01 3.051105223050921689e-01
8.101364033511192497e-01 -2.160228261236247504e-01 1.173085825451734010e+00
-1.409964256643519320e+00 2.981942852594656745e-01 -2.536446066594398641e+00
-1.111150495229987767e+00 9.966830864526557976e-01 9.144248603369078410e-01
-5.690686943910823192e-01 1.089548591476248385e+00 1.046907737344498379e+00
-1.333113044730645402e+00 -1.292663413831393937e+00 -3.416609651818878959e-03
-1.081883142108199386e-01 -2.324238352135686858e-01 -2.793094432368872226e-01
-1.353853760820867003e-01 -3.912435526852375833e-01 3.065710344156234446e-01
1.356352936964921208e+00 -3.914499304915404765e-01 2.966124200533885036e-01
-9.557556174227852530e-01 -6.158133727414845104e-01 4.607234472758508503e-01
-6.670700266840802195e-01 -5.353043510273025607e-01 9.349629338708906334e-02
-1.108305900005182698e+00 1.515540734745983054e+00 2.828029889607263758e+00
1.428300867805187391e+00 1.568223959620085095e+00 -6.802892279144152621e-01
1.367809784961289410e-01 1.599202152025661350e-01 -1.171004978198127100e+00
5.288171568037751680e-01 -8.777838945212205202e-01 -1.775803359077079646e+00
-9.265365575070599879e-01 9.574256881121901985e-01 -2.132950794810546669e-01
-3.070517588303079970e-01 -5.813191444993608403e-01 7.614673281820074635e-01
-2.072358966039013595e+00 -1.373517095878587224e-01 -1.236636980873922376e+00
1.358386615660910346e+00 1.386714985671172240e+00 -6.223601005617581672e-01
6.927068292699861685e-01 1.361453427828482887e+00 -1.471750914495483897e+00
-1.712629679665960580e+00 -2.426556665475131935e-01 -4.395164552207427855e-01
-1.507336060484351092e-01 -7.022080244061474907e-01 -2.588775118171797729e+00
6.399453337039453515e-01 4.295342934848752070e-01 -1.745177099964651646e+00
1.284268838636275278e+00 -9.492729416445476742e-01 -6.100721699835012224e-01
3.033084182343507781e-02 -7.263520567850492160e-01 -6.622130942399938602e-01
-1.819401762441690051e+00 5.684814102427915294e-01 -2.976591987191652411e+00
1.004284861888366409e+00 -1.390790102917108806e+00 5.284491445426783285e-01
-4.386167483525799660e-01 1.814454911047129970e+00 -1.167821359876081599e+00
1.520687283170301995e+00 -4.547506188669933058e-01 1.289593852735998247e+00
-2.420001844047642570e-01 5.384032450267639547e-01 1.565050796063159222e+00
1.141156581106592904e+00 -4.092469898924793736e-01 -7.455873156068685281e-01
1.357531845504547308e+00 6.462360818618836378e-01 -1.609238958574128020e+00
5.528243285839302690e-01 5.283979651863334182e-01 7.110140002554901084e-01
2.177669937259386401e+00 -1.560585721315972174e+00 -4.662286546241817264e-01
9.771797877221423123e-01 5.250445806041765806e-01 -1.122356080431832437e+00
-7.762281281954469536e-01 1.168127439939074391e-01 -3.135165619736939024e-02
1.317326198907008139e-02 -8.147201006737050388e-01 -4.717688707970385531e-01
1.006568643924221351e-01 -3.929095455224506650e-01 -9.882249113594800960e-01
3.410733158501857432e-01 1.166537958739632064e+00 -1.202035535250926213e+00
1.356904255052628017e+00 2.079051990743415512e+00 3.192742965570609659e-01
-1.247647040692097642e+00 7.589349306710492238e-01 -1.667971125874277316e+00
-1.849571544097947107e-02 2.174655315670104838e-01 -7.658443312856083596e-01
8.112913938118315738e-01 -7.384557621286453877e-01 -2.914975338308598007e-01
7.659046718363475836e-01 -7.297254198293819938e-01 -7.506130884579349516e-01
-3.258873828658518379e-01 -2.686236230022261307e+00 7.899297862377475665e-01
5.349932569128094118e-01 -1.238985368466503534e+00 -6.755773100302452372e-01
-1.501110763201985554e+00 -8.725038110194514029e-01 -9.434308775611767173e-01
4.674091334594905334e-01 6.057872056747830580e-01 -2.883865259710939322e-01
-1.132246389405277887e+00 1.595216130225290962e+00 1.182893976873392372e+00
7.992934442109674853e-01 -2.035371619563998813e+00 -5.088630304829299122e-01
7.183155530882284756e-01 4.623050279630340764e-01 -1.737633933209725035e+00
-1.386661390537879290e+00 5.272017937167979840e-01 -1.406442342929595579e+00
2.904641235518492515e-01 -1.967273445447053071e-01 5.213270445792541619e-01
4.246504867738325473e-01 1.167982449183377680e+00 9.630877649916492755e-01
5.730918923638892437e-01 5.283946785577897653e-01 -1.409853364104825202e+00
9.167241550424218843e-01 -1.104762675370054709e-01 1.587562057993914255e-01
-7.991226929263149925e-01 9.878475833401659245e-02 -3.709390421883200228e-01
-8.869013994224933528e-01 6.399404337122835962e-01 4.644102928879114689e-01
9.569660396686410220e-01 -6.050703499791858508e-01 -7.598237706995296659e-01
8.553170817025784745e-01 -8.456043841529460314e-01 1.320196664794087926e+00
-8.449178987956978970e-01 -1.124305401602747168e+00 7.560394798553100593e-01
-1.717189247592296741e+00 8.462435541993514887e-01 1.336013090345095966e+00
7.258948918007475104e-01 -8.998442297459159356e-01 -4.374926229384701326e-02
-7.998504806202657580e-01 -2.169476594391795410e-01 -2.537346735117207985e-01
7.733622700863443944e-01 6.265893370530423168e-01 -1.895626635654360792e-01
7.576221541686768424e-01 -9.629275271319835960e-01 1.286459816789628174e+00
-4.543779587581498469e-01 -4.107560731045609148e-02 1.345917768569585338e+00
-6.083396680533647016e-01 1.138397495727246245e+00 2.368488663990591547e+00
2.314498120917594104e+00 -9.829382025456465111e-02 3.515787414554032431e-01
-2.084096598822282598e-01 7.846467086697590798e-02 2.971098605278693072e-01
-1.531358140978543503e+00 5.987590040740446706e-02 -2.432043248036595828e-02
-5.948482503900105467e-01 6.106653721836651227e-01 5.862269491997816884e-01
2.503051877349774662e-02 -7.554125330419282358e-01 7.255876460134016437e-01
4.900211446102190616e-01 7.569342906398779380e-01 -9.639019163241284438e-02
-1.259324433289628509e+00 9.224465947605481331e-01 7.731480884581922730e-01
2.278312038703665721e+00 8.469095142162850198e-01 -2.236829249515126516e-01
-1.157707000332887315e+00 -2.561612237809509154e-02 1.362122761668958515e-01
3.504155157717909197e-01 9.709305893700388435e-01 -2.006694418156167004e+00
-2.695459975298249988e-01 -1.296988705040071022e+00 6.994588837536325210e-01
2.670819590481436911e-01 -2.104405697032726064e+00 -2.468766297884647243e-01
1.983582369045267413e+00 5.060226500195249555e-01 1.526359202528574821e+00
2.201371374652692225e-01 -5.214878853821077742e-01 9.012814326383716823e-01
-8.697631609184078849e-01 -1.123816798242749382e+00 1.631838036878997533e-01
-1.109200519540712637e+00 -1.284793418699129885e+00 -1.490113094693040763e-01
-2.382559751725133457e-01 -6.119341311307952003e-01 -1.633567655714408762e+00
3.546285436210352277e-02 5.642536473599765040e-02 -8.476851382027361659e-01
4.623934119104068652e-02 -7.601232168794506139e-01 -6.870348064081900352e-01
8.640317580275376219e-01 -1.940217770779911477e-01 -1.030822496361239571e+00
-2.284918440770477677e+00 -3.376227363990121910e-01 9.260874772442829750e-01
-2.813174045097258102e-01 -1.306322968947359886e-01 -2.713153707453256902e-01
-9.276758718371953538e-01 -2.920903964267937969e-01 -1.365889618427620800e+00
-1.403544452291624278e+00 -9.227428759707707595e-01 1.103287888779872494e+00
-8.238544401784388960e-01 -3.295131409408060819e-01 -7.799861418448558736e-02
-3.085565049052100273e-01 -2.430172701685217873e-01 3.223071736968099454e-01
6.707182700095560834e-01 -6.641767706867383048e-01 -4.144432685457574150e-01
1.378079056117171852e+00 2.748615453496300542e+00 5.475539380986259586e-01
-6.281080938733504260e-01 -1.646127688444943393e+00 -1.012896395878433581e-01
-8.124095112036900934e-01 9.881709386093382452e-01 -2.145962216502085518e+00
-4.291315943648509323e-01 -1.263539576144165233e+00 4.619364341792436823e-01
-3.872307646940758574e-01 1.975579750153225955e+00 6.863672478052484927e-01
-1.092424921358170264e+00 8.222591101349673304e-01 -1.178161790822917165e+00
-1.283943985223299000e+00 -8.618248051204728810e-01 1.477647590277045175e+00
4.394645962804476919e-02 -5.112099450789451410e-02 6.844388280788827883e-01
-5.401241465019576138e-01 -3.745630230776120229e-01 -7.866124236713584184e-01
2.602150947331224873e-01 2.274134669261919761e+00 5.557509915941367257e-02
5.646703118813080069e-01 1.617484561104326257e+00 9.669466992307059749e-01
1.142267089083852105e-01 -1.422074236316178686e+00 9.004833935996257033e-01
-1.121798310135731835e+00 1.973702784439565483e-01 2.192940841347835179e-01
-6.051902925910693787e-01 6.136868876878350809e-01 -7.671394842684109427e-01
-5.775183822726644989e-01 5.750760670281707121e-01 5.960322893312336445e-01
-1.285982739479576198e+00 9.737806448049679542e-01 -8.360809154706766444e-01
1.526741900829557741e+00 -1.967007490716721652e+00 1.045432909874916660e+00
2.264368354178354081e-01 4.682072568203858309e-01 -1.313449852732180567e-01
-5.221751176022017965e-02 1.586683925733943512e-01 -1.381466840369836857e-01
-3.337139587996526546e-02 -2.170305650051817636e+00 1.607225003576097988e+00
1.681673332230350315e+00 3.898829513284585713e-01 -3.672772746779404823e-02
-5.451729693043269043e-01 1.392959809827145623e-01 -4.905481626741203249e-01
7.616228573310136474e-01 -7.339080742706766136e-01 -1.071203378296825548e+00
-1.033106817471448391e+00 8.131337331272049385e-01 8.330876871012633522e-01
1.033396453002158877e+00 2.212356045829968920e+00 -2.736813474414557579e+00
3.453550605281472952e-01 1.010332109061130440e-01 -4.778811520809475577e-01
-1.155412469234859518e+00 7.180033347859215986e-02 7.925800296452755189e-01
1.915386264012366224e+00 -1.113877570573240883e+00 5.959769967889502196e-01
-4.355290741796654097e-01 -8.839448151989071079e-01 -4.132003020396811666e-01
6.302255132552189165e-01 8.064823405366534637e-01 2.895916404367157027e-01
1.491247319027758644e+00 4.404899385791926081e-01 -1.722964454552989633e+00
2.671048015597648817e+00 -3.237594931779891327e-02 -1.162123075792286464e+00
-8.352443863590380824e-01 -5.082403350005596510e-01 -4.865368023303234465e-03
-1.152678960921875273e+00 -6.505854136737625193e-02 -4.576246918175084222e-01
7.413258226189704814e-02 1.839796927549424144e-01 -7.908443189299841913e-01
